emb -0.70932523 0.14437877 0.38292361 -0.63507211 0.01657262 -0.08579916 -0.22419677 -0.00729750 0.06105771 -0.12572289 -0.52919903 -0.15875662 0.25470532 -0.02356234 -0.02356945 -0.35488032 -0.53837586 0.07411571 0.10526485 -0.53301226 -0.42013693 0.03286473 -0.15955672 0.08939920 0.06640038 0.05861142 -0.38528658 0.08895933 0.18840673 -0.46907573 0.11663486 -0.79163322
dt0_w -0.04072682 0.05782093 0.00788347 0.00723746 0.05279448 -0.03055396 -0.00631930 -0.00063571 0.03001255 -0.03293374 -0.02317429 -0.02304532 -0.01435559 0.00020101 0.00071056 0.00007186 0.01030983 -0.00398909 -0.02110516 -0.02132358 0.01365182 -0.01682239 -0.00274308 -0.00027553 -0.00349376 0.00618112 -0.00151487 -0.00161408 0.00762678 -0.00543686 -0.00104006 -0.00010458 0.02920448 -0.03043285 -0.02544719 -0.02537960 -0.00987356 -0.00352707 0.00003309 0.00000376 -0.03464378 0.06762062 -0.02638003 -0.02759088 0.09168520 -0.06850815 -0.01289450 -0.00129644 -0.00785423 -0.01713814 0.05228912 0.05317931 -0.06159418 0.05934898 0.01031892 0.00103696 -0.03274634 0.07023740 -0.03627804 -0.03764929 0.10269983 -0.07933229 -0.01476602 -0.00148451 0.05078493 -0.09359560 0.02874537 0.03032198 -0.12037040 0.08767225 0.01664660 0.00167378 -0.06600817 0.06637096 0.06184743 0.06178123 0.01619252 0.01353819 0.00090958 0.00009044 0.07316560 -0.08110752 -0.05502244 -0.05467860 -0.03707848 0.00238243 0.00206688 0.00020881 -0.05765790 0.08107351 0.01256947 0.01168305 0.07275084 -0.04144573 -0.00862625 -0.00086781 0.02822611 -0.03077917 -0.02214350 -0.02202917 -0.01300824 -0.00025895 0.00058904 0.00005962 0.00990618 -0.00380813 -0.02032332 -0.02053409 0.01318021 -0.01622092 -0.00264579 -0.00026576 -0.00296847 0.01010239 -0.00999222 -0.01025052 0.01878718 -0.01580610 -0.00286199 -0.00028768 0.02847116 -0.02902993 -0.02595455 -0.02591156 -0.00800499 -0.00491162 -0.00022825 -0.00002252
dt0_b 0.00723091 -0.02304401 -0.02132580 -0.00161509 -0.02537891 -0.02760314 0.05318832 -0.03766318 0.03033794 0.06178056 -0.05467511 0.01167407 -0.02202801 -0.02053622 -0.01025314 -0.02591113
dt2_w -0.00023088 0.03342668 0.04043098 -0.00484873 0.00725085 -0.03712332 0.03327557 0.03690356 -0.01624888 0.00231259 -0.04198451 -0.02691485 0.02888135 0.03948964 -0.03619002 0.00851323 0.00095414 0.06866886 0.05854158 -0.03689638 -0.03399146 0.02864374 -0.00632427 0.06039233 0.02074433 -0.03540982 -0.03185171 0.02344492 0.04641375 0.05227772 -0.03953926 -0.03392967 -0.00056747 -0.04709637 -0.04164236 0.02366633 0.02033830 -0.01326192 -0.00020678 -0.04235815 -0.01093410 0.02184207 0.02515538 -0.01128872 -0.03261876 -0.03760978 0.02923579 0.02014189 0.00061755 -0.01185419 -0.02353176 -0.00838132 -0.02090400 0.05250513 -0.03980662 -0.01886938 0.02605911 -0.01588034 0.03528818 0.03907105 -0.01508636 -0.02482170 0.02588655 -0.02230101 0.00036163 0.05104777 0.04948628 -0.02087256 -0.01337030 -0.00423979 0.01347565 0.04864794 0.00224773 -0.01654862 -0.03691811 -0.00173496 0.03764755 0.04588368 -0.03786464 -0.01270822 -0.00115999 -0.06471746 -0.05069766 0.03969016 0.04095946 -0.04614545 0.01959314 -0.05410253 -0.02943070 0.04070327 0.02008898 -0.03646860 -0.04138496 -0.04400382 0.03091041 0.04136334 0.00002504 -0.02947528 -0.03258706 0.00764251 -0.00028285 0.01962160 -0.02000670 -0.03061377 0.00756251 0.00298086 0.03022178 0.01389117 -0.02385256 -0.03121574 0.02756117 -0.00107956 -0.00023088 0.03342668 0.04043098 -0.00484873 0.00725085 -0.03712332 0.03327557 0.03690356 -0.01624888 0.00231259 -0.04198451 -0.02691485 0.02888135 0.03948964 -0.03619002 0.00851323 0.00095414 0.06866886 0.05854158 -0.03689638 -0.03399146 0.02864374 -0.00632427 0.06039233 0.02074433 -0.03540982 -0.03185171 0.02344492 0.04641375 0.05227772 -0.03953926 -0.03392967 -0.00056747 -0.04709637 -0.04164236 0.02366633 0.02033830 -0.01326192 -0.00020678 -0.04235815 -0.01093410 0.02184207 0.02515538 -0.01128872 -0.03261876 -0.03760978 0.02923579 0.02014189 0.00061755 -0.01185419 -0.02353176 -0.00838132 -0.02090400 0.05250513 -0.03980662 -0.01886938 0.02605911 -0.01588034 0.03528818 0.03907105 -0.01508636 -0.02482170 0.02588655 -0.02230101 0.00036163 0.05104777 0.04948628 -0.02087256 -0.01337030 -0.00423979 0.01347565 0.04864794 0.00224773 -0.01654862 -0.03691811 -0.00173496 0.03764755 0.04588368 -0.03786464 -0.01270822 -0.00115999 -0.06471746 -0.05069766 0.03969016 0.04095946 -0.04614545 0.01959314 -0.05410253 -0.02943070 0.04070327 0.02008898 -0.03646860 -0.04138496 -0.04400382 0.03091041 0.04136334 0.00002504 -0.02947528 -0.03258706 0.00764251 -0.00028285 0.01962160 -0.02000670 -0.03061377 0.00756251 0.00298086 0.03022178 0.01389117 -0.02385256 -0.03121574 0.02756117 -0.00107956 -0.00023088 0.03342668 0.04043098 -0.00484873 0.00725085 -0.03712332 0.03327557 0.03690356 -0.01624888 0.00231259 -0.04198451 -0.02691485 0.02888135 0.03948964 -0.03619002 0.00851323 0.00095414 0.06866886 0.05854158 -0.03689638 -0.03399146 0.02864374 -0.00632427 0.06039233 0.02074433 -0.03540982 -0.03185171 0.02344492 0.04641375 0.05227772 -0.03953926 -0.03392967
dt2_b -0.10000000 0.10000000 -0.05000000 0.15000000 0.00000000 -0.15000000 0.05000000 -0.10000000 0.10000000 -0.05000000 0.15000000 0.00000000 -0.15000000 0.05000000 -0.10000000 0.10000000
dl0_w -0.01691018 -0.00992966 0.01889611 -0.01132577 0.01750001 -0.01272187 0.01610390 -0.01411797 0.01470780 -0.01551407 0.01331170 -0.01691018 0.00175731 -0.00141156 -0.00147499 -0.00077779 -0.00084122 -0.00014402 -0.00020745 0.00048976 0.00042633 0.00112353 0.00106010 0.00175731 0.00961399 0.00649780 -0.01091355 0.00712104 -0.01029031 0.00774428 -0.00966708 0.00836752 -0.00904384 0.00899075 -0.00842060 0.00961399 -0.01331201 -0.00843750 0.01499951 -0.00941240 0.01402460 -0.01038730 0.01304970 -0.01136220 0.01207480 -0.01233710 0.01109990 -0.01331201 -0.00541026 -0.01205376 0.00782101 -0.01072506 0.00914971 -0.00939636 0.01047841 -0.00806766 0.01180711 -0.00673896 0.01313581 -0.00541026 0.01823000 0.02205003 -0.02264001 0.02128602 -0.02340401 0.02052202 -0.02416802 0.01975801 -0.02493202 0.01899401 -0.02569603 0.01823000 0.00193124 -0.00220607 -0.00149003 -0.00137861 -0.00066256 -0.00055115 0.00016490 0.00027632 0.00099236 0.00110378 0.00181982 0.00193124 -0.02171266 -0.01449318 0.02461130 -0.01593708 0.02316740 -0.01738097 0.02172350 -0.01882487 0.02027961 -0.02026876 0.01883571 -0.02171266 0.01144688 0.00726607 -0.01290009 0.00810223 -0.01206393 0.00893839 -0.01122777 0.00977455 -0.01039161 0.01061072 -0.00955545 0.01144688 0.00911178 0.01191318 -0.01149442 0.01135290 -0.01205470 0.01079262 -0.01261497 0.01023234 -0.01317525 0.00967206 -0.01373553 0.00911178 -0.00671683 -0.01437500 0.00959183 -0.01284337 0.01112346 -0.01131173 0.01265510 -0.00978010 0.01418673 -0.00824846 0.01571837 -0.00671683 0.00177973 -0.00167958 -0.00144382 -0.00098772 -0.00075196 -0.00029585 -0.00006009 0.00039601 0.00063177 0.00108787 0.00132363 0.00177973 0.01125482 0.01882769 -0.01502036 0.01731312 -0.01653493 0.01579854 -0.01804950 0.01428397 -0.01956408 0.01276939 -0.02107865 0.01125482 0.00566299 -0.00993416 -0.00367616 -0.00681473 -0.00055673 -0.00369530 0.00256270 -0.00057587 0.00568213 0.00254356 0.00880156 0.00566299 -0.01281247 -0.00311329 0.01343513 -0.00505313 0.01149529 -0.00699296 0.00955546 -0.00893280 0.00761562 -0.01087263 0.00567579 -0.01281247 0.00324037 0.01405844 -0.00605206 0.01189483 -0.00821567 0.00973121 -0.01037929 0.00756760 -0.01254290 0.00540399 -0.01470651 0.00324037
dl0_b 0.02792206 -0.01267547 -0.01246475 0.01949802 -0.02657401 0.01528012 -0.01654926 0.02887793 -0.01672322 0.01120558 -0.03063270 -0.01383725 0.03029149 -0.06238862 0.03879670 0.04327227
dl2_w 0.02413387 -0.01739785 0.02733626 -0.02954390 0.02088998 -0.01410716 0.00254655 0.00083224 -0.00094252 -0.00096559 -0.02272997 0.01469327 -0.01977720 0.01741903 -0.01083377 0.02906716 0.00973212 -0.02563309 0.02579250 -0.00984797 0.00985686 -0.00602239 0.01372964 -0.00438079 -0.00481757 0.01374288 -0.00757666 0.01008517 -0.02419676 0.02664474 -0.02743882 0.01854254 -0.00909931 0.01819541 -0.01953735 0.00984797 -0.00877178 0.00552739 -0.00889935 0.00263396 0.00312880 -0.00846860 0.00757666 -0.00813989 0.01759512 -0.01883034 0.01850348 -0.01522249 -0.02350106 0.00996018 -0.02108110 0.02954390 -0.01980490 0.01361216 0.00228375 -0.00257907 -0.00074625 0.00623987 0.02272997 -0.01274799 0.01317556 -0.00960463 0.00189844 -0.02574710 0.01693300 -0.02151547 0.02656438 -0.01969593 0.01537342 -0.01006477 0.00813810 -0.00177427 -0.00288005 0.00638864 -0.01515331 0.01238922 -0.02198698 0.02203189 -0.01913630 0.02380485 -0.00189844 0.02231303 -0.01876547 0.00000000 -0.00325522 0.00148500 -0.01449089 0.00524048 0.00506632 -0.01582283 0.00000000 -0.00583584 0.01980490 -0.02344320 0.02680601 -0.00996018 -0.01630018 0.01407779 -0.02030923 0.01969593 -0.01428834 0.00956977 -0.00330780 0.00002745 0.00119127 -0.00111436 0.01515331 -0.01044394 0.01538534 -0.01421749 0.01020096 -0.02048479 0.02413387 -0.01739785 0.02733626 -0.02954390 0.02088998 -0.01410716 0.00254655 0.00083224 -0.00094252 -0.00096559 -0.02272997 0.01469327 -0.01977720 0.01741903 -0.01083377 0.02906716 0.00973212 -0.02563309 0.02579250 -0.00984797 0.00985686 -0.00602239 0.01372964 -0.00438079 -0.00481757 0.01374288 -0.00757666 0.01008517 -0.02419676 0.02664474 -0.02743882 0.01854254 -0.00909931 0.01819541 -0.01953735 0.00984797 -0.00877178 0.00552739 -0.00889935 0.00263396 0.00312880 -0.00846860 0.00757666 -0.00813989 0.01759512 -0.01883034 0.01850348 -0.01522249 -0.02350106 0.00996018 -0.02108110 0.02954390 -0.01980490 0.01361216 0.00228375 -0.00257907 -0.00074625 0.00623987 0.02272997 -0.01274799 0.01317556 -0.00960463 0.00189844 -0.02574710 0.01693300 -0.02151547 0.02656438 -0.01969593 0.01537342 -0.01006477 0.00813810 -0.00177427 -0.00288005 0.00638864 -0.01515331 0.01238922 -0.02198698 0.02203189 -0.01913630 0.02380485 -0.00189844 0.02231303 -0.01876547 0.00000000 -0.00325522 0.00148500 -0.01449089 0.00524048 0.00506632 -0.01582283 0.00000000 -0.00583584 0.01980490 -0.02344320 0.02680601 -0.00996018 -0.01630018 0.01407779 -0.02030923 0.01969593 -0.01428834 0.00956977 -0.00330780 0.00002745 0.00119127 -0.00111436 0.01515331 -0.01044394 0.01538534 -0.01421749 0.01020096 -0.02048479 0.02413387 -0.01739785 0.02733626 -0.02954390 0.02088998 -0.01410716 0.00254655 0.00083224 -0.00094252 -0.00096559 -0.02272997 0.01469327 -0.01977720 0.01741903 -0.01083377 0.02906716 0.00973212 -0.02563309 0.02579250 -0.00984797 0.00985686 -0.00602239 0.01372964 -0.00438079 -0.00481757 0.01374288 -0.00757666 0.01008517 -0.02419676 0.02664474 -0.02743882 0.01854254
dl2_b -0.10000000 0.10000000 -0.05000000 0.15000000 0.00000000 -0.15000000 0.05000000 -0.10000000 0.10000000 -0.05000000 0.15000000 0.00000000 -0.15000000 0.05000000 -0.10000000 0.10000000
d_ts -0.06507406 -0.03707390 0.02155019 -0.05595173 0.03429944 0.09172039 -0.02853688 0.02847364 0.07307220 0.07402304 -0.04096384 0.01344870 -0.02842866 -0.06995129 -0.00053343 -0.01917879
d_y -0.03081779 0.01035874 0.00317261 -0.02368342 -0.01032500 0.02428364 -0.00473472 -0.03160022 0.02559622 -0.00734053 0.00870153 -0.00214417 0.03077308 -0.00013053 -0.02207727 0.02240286 0.00985839 -0.03433133 0.01619007 0.00394683 -0.00210582 -0.02643155 0.03586506 -0.02146876
